tree
version=v3
num_class=1
num_tree_per_iteration=1
label_index=0
max_feature_idx=184
objective=binary sigmoid:1
feature_names=Column_0 Column_1 Column_2 Column_3 Column_4 Column_5 Column_6 Column_7 Column_8 Column_9 Column_10 Column_11 Column_12 Column_13 Column_14 Column_15 Column_16 Column_17 Column_18 Column_19 Column_20 Column_21 Column_22 Column_23 Column_24 Column_25 Column_26 Column_27 Column_28 Column_29 Column_30 Column_31 Column_32 Column_33 Column_34 Column_35 Column_36 Column_37 Column_38 Column_39 Column_40 Column_41 Column_42 Column_43 Column_44 Column_45 Column_46 Column_47 Column_48 Column_49 Column_50 Column_51 Column_52 Column_53 Column_54 Column_55 Column_56 Column_57 Column_58 Column_59 Column_60 Column_61 Column_62 Column_63 Column_64 Column_65 Column_66 Column_67 Column_68 Column_69 Column_70 Column_71 Column_72 Column_73 Column_74 Column_75 Column_76 Column_77 Column_78 Column_79 Column_80 Column_81 Column_82 Column_83 Column_84 Column_85 Column_86 Column_87 Column_88 Column_89 Column_90 Column_91 Column_92 Column_93 Column_94 Column_95 Column_96 Column_97 Column_98 Column_99 Column_100 Column_101 Column_102 Column_103 Column_104 Column_105 Column_106 Column_107 Column_108 Column_109 Column_110 Column_111 Column_112 Column_113 Column_114 Column_115 Column_116 Column_117 Column_118 Column_119 Column_120 Column_121 Column_122 Column_123 Column_124 Column_125 Column_126 Column_127 Column_128 Column_129 Column_130 Column_131 Column_132 Column_133 Column_134 Column_135 Column_136 Column_137 Column_138 Column_139 Column_140 Column_141 Column_142 Column_143 Column_144 Column_145 Column_146 Column_147 Column_148 Column_149 Column_150 Column_151 Column_152 Column_153 Column_154 Column_155 Column_156 Column_157 Column_158 Column_159 Column_160 Column_161 Column_162 Column_163 Column_164 Column_165 Column_166 Column_167 Column_168 Column_169 Column_170 Column_171 Column_172 Column_173 Column_174 Column_175 Column_176 Column_177 Column_178 Column_179 Column_180 Column_181 Column_182 Column_183 Column_184
feature_infos=[1:131051] [1:131051] [1:147] [16:89] [14.844925910000001:67.814989729999994] [0:1] [1:7] [1:3] [137.19999999999999:195.59] [1:16] [1:6] [82:927] [1:3] [1:8] [-24.94722222:84.367361110000004] none [38.600000000000001:186] [1.2:4.5999999999999996] [101:308] [0.01:2201.0500000000002] [0:1] [0:1] [0.10000000000000001:43.5] [4:127] [0.29999999999999999:11.18] [0.20999999999999999:1] [1:4] [1:6] [0:1] [1:5] [39:598.70000000000005] [30:178] [16.199999999999999:51.399999999999999] [0:1] [40:200] [18:95] [18:95] [31:498] [6.9605399999999991:7.5899999999999999] [4:60] [117:158] [32.100000000000001:39.700000000000003] [0:8716.6696319999992] [0:1] [0.90000000000000002:45.799999999999997] [37:181] [5:89] [46:165] [13:90] [46:165] [13:90] [58:177] [0:175] [38:322] [2:119] [60:184] [22:112] [60:181] [22:112] [14:92] [0:100] [0:100] [0:100] [71:295] [10:172] [90:232] [41:160] [90:232] [41.030000000000001:160] [35.100000000000001:39.899999999999999] [31.888999999999999:37.799999999999997] [33:135] [19:104] [37:143] [22:113] [37:144] [22:114] [46:164] [36:144] [35.625:293.375] [8:140] [49:165] [32:138] [49:163] [32:138] [10:59] [0:189] [0:100] [0:100] [65:246] [31.440000000000001:198] [75:223] [53:194] [75:223] [53:195] [33.399999999999999:39.5] [32.899999999999999:39.299999999999997] [1.2:4.5999999999999996] [1.1000000000000001:4.5] [0.20000000000000001:44.799999999999997] [0.20000000000000001:43.5] [4:126] [3:113.09] [6.2000000000000002:10.800000000000001] [5.5:10.300000000000001] [0.34000000000000002:11.109999999999999] [0.29999999999999999:9.9379000000000008] [73:611] [33:288] [12:40] [7:39] [6.7999999999999998:17.199999999999999] [5.2999999999999998:16.699999999999999] [20.399999999999999:51.5] [16.100000000000001:50] [0.90000000000000002:7.7560000000000002] [0.90000000000000002:6.1270000000000007] [0.40000000000000002:19.800000000000001] [0.40000000000000002:15.1] [27:585] [18.550000000000001:557.45000000000005] [2.7999999999999998:7] [2.3999999999999999:5.7999999999999998] [123:158] [117:153] [1.2:46.079999999999998] [0.90000000000000002:40.898000000000003] [1.1000000000000001:4.7000000000000002] [1.1000000000000001:4.7000000000000002] [0.20000000000000001:40.399999999999999] [0.20000000000000001:40.399999999999999] [4:135] [4:135] [5.5999999999999996:11.4] [5.2999999999999998:11.315] [0.33000000000000002:11.604200000000001] [0.33000000000000002:11.571] [59:695.04499999999996] [42:670] [6:39] [6:39] [5.0999999999999996:17.399999999999999] [5:17.300000000000001] [16:51.700000000000003] [15.5:51.5] [0.90000000000000002:7.7560000000000002] [0.90000000000000002:6.1270000000000007] [0.40000000000000002:18.100000000000001] [0.40000000000000002:18.019500000000001] [20:585] [20:585] [2.5:7.2000000000000002] [2.5:7.0999999999999996] [114:157] [114:157] [1.1000000000000001:44.101999999999997] [1.0898000000000001:44.101999999999997] [18.399999999999999:111] [14.9:85.912000000000006] [7.0542800000000003:7.6200000000000001] [6.8899999999999997:7.5578600000000007] [39:540.86500000000001] [28:448.892] [54.799999999999997:834.80499999999995] [36:604.22777780000001] [15:111.505] [14.997:107] [6.9299999999999997:7.5700000000000003] [6.9000000000000004:7.5629999999999997] [34:534.90499999999997] [31:514.90499999999997] [42:720] [38:654.8137931] [-1:0.98999999999999999] [-1:0.96999999999999997] [0:1] [0:1] [0:1] [0:1] [0:1] [0:1] [0:1] [0:1] [1:12] [1:11]
tree_sizes=1526 1516 1529 1511 1517 1529 1526 1522 1508 1528 1539 1519 1517 1532 1515 1511 1531 1521 1522 1521 1519 1548 1537 1523 1509 1524 1514 1512 1524 1528 1502 1520 1518 1519 1527 1519 1510 1529 1514 1522 1534 1515 1512 1522 1497

Tree=0
num_leaves=13
num_cat=0
split_feature=159 20 109 104 109 104 20 104 109 109 159 104
split_gain=6556.38 1794.96 1034.69 562.374 478.566 353.764 237.67 153.683 147.561 145.596 129.548 123.649
threshold=1.0000000180025095e-35 1.0000000180025095e-35 19.050000000000004 7.3500000000000005 21.050000000000004 6.9500000000000011 1.0000000180025095e-35 7.4500000000000011 19.050000000000004 14.100000000000001 7.2195000000000009 9.7500000000000018
decision_type=10 2 8 10 8 8 2 8 8 10 10 10
left_child=2 4 9 -4 -2 -3 11 -6 -7 -1 -9 -5
right_child=1 5 3 6 7 8 -8 10 -10 -11 -12 -13
leaf_value=0.010079471734751945 0.011088113086821746 0.0070060792050950374 -0.0028793606460714161 -0.0078236841044223102 0.0094421213097844285 0.0058328998315122574 -0.0130519487112504 0.013638569934750221 -0.0062356560748349837 0.0013622601749237642 0.0047384505281970433 0.000680696930881396
leaf_weight=172.63701152801514 2043.9502568244934 198.53387713432312 1924.853413105011 3982.1274361610413 738.3698365688324 78.687312126159668 662.50910258293152 123.1683554649353 986.83014154434204 695.85491609573364 2864.6309995651245 127.17164015769958
leaf_count=192 2059 286 4804 12036 873 123 2372 90 2816 1422 4824 269
internal_value=0 0.679109 -0.662025 -0.795211 0.915541 -0.400002 -0.979272 0.702049 -0.628435 0.364681 0.600861 -0.889434
internal_weight=0 7034.17 7565.15 6696.66 5770.12 1264.05 4771.81 3726.17 1065.52 868.492 2987.8 4109.3
internal_count=32166 11071 21095 19481 7846 3225 14677 5787 2939 1614 4914 12305
shrinkage=0.0085


Tree=1
num_leaves=13
num_cat=0
split_feature=94 59 94 59 120 120 59 120 94 120 137 59
split_gain=3275.94 1753.46 674.436 460.976 388.312 277.791 248.519 172.082 133.113 111.711 95.8935 88.2932
threshold=99.500000000000014 29.500000000000004 79.500000000000014 29.500000000000004 95.500000000000014 55.500000000000007 24.500000000000004 85.500000000000014 115.50000000000001 113.50000000000001 203.50000000000003 29.500000000000004
decision_type=8 8 10 8 8 8 10 8 8 10 10 8
left_child=2 4 11 7 10 -3 -6 -4 -7 -5 -2 -1
right_child=1 5 3 9 6 8 -8 -9 -10 -11 -12 -13
leaf_value=0.0074562676089527883 -0.00045435259418674586 0.011083365508739484 0.0072734734134476779 0.0094198313768957299 -0.0082979417094465879 0.0030948791378761506 -0.0045332924644892964 -0.001068744905840668 -0.00032063159200706082 0.0046914636056127786 0.010049585125138523 0.011277373449004082
leaf_weight=779.12327468395233 435.49334807693958 201.49895377457142 203.57449260354042 568.01703613996506 3030.3439039736986 1248.7071671187878 2183.0737978219986 1440.6802668422461 2423.4098417758942 998.87918843328953 72.980190604925156 1013.3312032222748
leaf_count=1084 975 202 287 671 9322 2320 5837 3318 5389 1685 81 995
internal_value=0 -0.357775 0.640251 0.365825 -0.709487 0.161739 -0.790843 -0.00398326 0.0989064 0.753886 0.124368 1.13164
internal_weight=0 9595.51 5003.61 3211.15 5721.89 3873.62 5213.42 1644.25 3672.12 1566.9 508.474 1792.45
internal_count=32166 24126 8040 5961 16215 7911 15159 3605 7709 2356 1056 2079
shrinkage=0.0085


Tree=2
num_leaves=13
num_cat=0
split_feature=31 31 44 165 31 170 31 44 13 44 44 176
split_gain=2754.79 1071.37 916.315 515.163 431.807 347.331 340.784 205.051 178.32 140.798 133.743 128.37
threshold=115.50000000000001 41.500000000000007 15.005000000000001 90.15000000000002 131.50000000000003 1.0000000180025095e-35 109.50000000000001 16.705000000000002 3.5000000000000004 24.405000000000005 12.505000000000001 1.0000000180025095e-35
decision_type=8 10 10 8 10 10 10 10 2 10 8 10
left_child=1 10 3 8 5 7 11 -2 -3 -4 -1 -5
right_child=4 2 9 6 -6 -7 -8 -9 -10 -11 -12 -13
leaf_value=0.0024830022747506391 -0.00073570300974610885 -0.0052600296549284642 0.00024766482080654494 -0.0077052883552746979 0.0067424035478215747 0.0072133350114249092 -0.0016024113438651479 0.0053599848251348441 0.0020817446435952708 0.0060418484858843196 0.011154499345377581 0.001781736431198565
leaf_weight=198.55827002227306 1871.0867081880569 345.85107806324959 1273.2971658557653 4354.5096441209316 2814.1646961867809 744.9926609992981 848.77305270731449 506.23748795688152 771.56344829499722 397.46617168188095 367.12853851914406 105.22786711156368
leaf_count=382 4244 952 2754 13133 4124 1053 2005 817 1514 612 366 210
internal_value=0 -0.375179 -0.468158 -0.639692 0.509139 0.252988 -0.76959 0.0661751 -0.0224213 0.191499 0.954852 -0.880126
internal_weight=0 8662.38 8096.69 6425.93 5936.48 3122.32 5308.51 2377.32 1117.41 1670.76 565.687 4459.74
internal_count=32166 21928 21180 17814 10238 6114 15348 5061 2466 3366 748 13343
shrinkage=0.0085


Tree=3
num_leaves=13
num_cat=0
split_feature=110 10 53 53 10 10 110 110 10 89 53 32
split_gain=4186.79 949.483 1087.69 827.121 549.53 420.017 292.029 163.908 168.251 145.53 129.906 118.986
threshold=19.050000000000004 3.5000000000000004 1.0000000180025095e-35 321.50000000000006 4.5000000000000009 2.5000000000000004 21.050000000000004 16.850000000000005 3.5000000000000004 117.50000000000001 72.500000000000014 23.950000000000003
decision_type=8 2 10 8 2 2 10 10 2 10 8 8
left_child=3 2 5 7 10 6 -2 -1 -9 -4 -3 -12
right_child=1 4 9 -5 -6 -7 -8 8 -10 -11 11 -13
leaf_value=0.013889383820683828 -0.001409593082289198 0.0018918133294076548 0.0070874171054456578 0.0038127664886479875 0.00080501934780306209 0.00070250846734799138 -0.0054916341715735353 0.011235769080752399 0.0017928895901794825 0.00057728559463650743 -0.0036530223381286866 -0.010912286890274526
leaf_weight=1106.9840898811817 2012.2709514796734 66.802685365080833 1024.8386516869068 1904.052945420146 445.40442472696304 1856.5283401012421 3420.2152932435274 479.14214093983173 191.11689428985119 327.88422414660454 182.95929908752441 1580.3180701583624
leaf_count=766 4713 133 1463 3379 938 3927 9511 469 381 698 473 5315
internal_value=0 -0.326423 -0.175057 0.906741 -0.901099 -0.327908 -0.468234 1.39735 1.00556 0.648333 -1.1435 -1.19536
internal_weight=0 10917.2 8641.74 3681.3 2275.48 7289.01 5432.49 1777.24 670.259 1352.72 1830.08 1763.28
internal_count=32166 27171 20312 4995 6859 18151 14224 1616 850 2161 5921 5788
shrinkage=0.0085


Tree=4
num_leaves=13
num_cat=0
split_feature=37 70 70 99 114 99 70 99 37 124 124 70
split_gain=4411.68 2019.22 794.258 779.684 377.862 356.731 326.452 162.943 155.196 152.49 147.609 141.85
threshold=1.0000000180025095e-35 35.315000000000005 35.07500000000001 1.0100000000000002 34.650000000000013 0.99500000000000011 34.554160000000003 0.59500000000000008 66.950000000000017 141.65000000000003 132.75000000000003 36.026440000000001
decision_type=10 10 10 10 10 10 8 10 10 10 10 10
left_child=1 6 -2 4 7 8 -1 10 -4 -6 -3 -5
right_child=2 3 5 11 9 -7 -8 -9 -10 -11 -12 -13
leaf_value=0.0120529314836192 0.012720214465124896 -0.0028940833622521185 0.0075569646430947868 0.007455462006374476 -0.0094678867478183056 0.0094385111605660051 0.00306721842704161 -0.00075368069954132532 0.002290807244439442 -0.0041088113635441631 -0.006272262719095846 0.00018529658711951779
leaf_weight=509.17942677438259 1125.7520904392004 1422.2685704529285 485.235655605793 256.75392958521843 2110.3430176526308 846.34643679857254 686.41750295460224 726.67996038496494 2429.216288536787 470.79854172468185 2738.8343432098627 790.11137124896049
leaf_count=455 918 3561 666 356 6774 989 1279 1651 4713 1241 7850 1713
internal_value=0 -0.405265 0.759645 -0.576134 -0.689417 0.53892 0.811464 -0.525842 0.372799 -0.999004 -0.602143 0.231928
internal_weight=0 9711.39 4886.55 8515.79 7468.92 3760.8 1195.6 4887.78 2914.45 2581.14 4161.1 1046.87
internal_count=32166 24880 7286 23146 21077 6368 1734 13062 5379 8015 11411 2069
shrinkage=0.0085


Tree=5
num_leaves=13
num_cat=0
split_feature=159 101 101 50 50 50 101 50 101 159 30 75
split_gain=6101.92 2759.33 1672.96 986.168 441.986 392.463 311.522 257.206 177.863 141.641 142.961 138.129
threshold=1.0000000180025095e-35 21.100000000000005 21.100000000000005 50.500000000000007 33.500000000000007 37.500000000000007 40.100000000000009 35.500000000000007 27.100000000000005 7.2905000000000006 201.50000000000003 1.0000000180025095e-35
decision_type=10 8 8 10 8 8 10 10 10 10 8 10
left_child=1 -1 4 7 -2 -4 -5 -3 9 -7 -11 -6
right_child=2 3 5 6 11 8 -8 -9 -10 10 -12 -13
leaf_value=-0.011119539074706909 0.0093895988608420061 0.0058232448183549732 0.011907639096268777 -0.0084315568413971566 -0.0071169125155426541 0.011560590772941937 0.00028764748430898656 0.00036673254687645334 0.0081643728732647969 -0.00076740422376536622 0.0065022296807703177 -0.0006579047124175727
leaf_weight=3300.8795874863863 308.04734739661217 962.7582651078701 1683.1156284511089 1153.4884629994631 275.38062134385109 140.8375438451767 397.87745244801044 1774.923777654767 2097.5829911082983 459.65596297383308 339.28745250403881 1811.2974936068058
leaf_count=11202 360 1512 1509 3579 814 132 863 3831 2735 1043 504 4082
internal_value=0 -0.620928 0.668047 -0.0919183 -0.0126975 1.01339 -0.728834 0.269004 0.79848 0.436453 0.272935 -0.177873
internal_weight=0 7589.93 7115.21 4289.05 2394.73 4720.48 1551.37 2737.68 3037.36 939.781 798.943 2086.68
internal_count=32166 20987 11179 9785 5256 5923 4442 5343 4414 1679 1547 4896
shrinkage=0.0085


Tree=6
num_leaves=13
num_cat=0
split_feature=162 70 70 162 179 70 63 128 70 70 128 63
split_gain=6301.35 1165.08 996.436 443.18 317.231 306.566 215.434 135.864 127.144 121.883 92.2463 84.4386
threshold=1.0000000180025095e-35 35.105000000000011 35.315000000000005 62.650000000000013 1.0000000180025095e-35 36.105000000000011 127.50000000000001 2.5500000000000003 37.026479999999999 36.079220000000014 2.3500000000000001 118.50000000000001
decision_type=10 10 8 10 10 10 10 8 10 10 8 8
left_child=2 -2 -1 -3 5 -4 9 -7 -9 -5 -8 -11
right_child=1 3 4 6 -6 7 10 8 -10 11 -12 -13
leaf_value=0.0068167158640229531 0.012134074103133545 0.0083999759963483151 -0.003587481297189085 0.0069273508727222873 0.0025199313362565478 0.0032088568342417381 0.0089369316922220474 -0.008311347895342356 -0.0029902305703375961 0.0085864230405022449 -0.00048591820700190889 0.0024797817336516727
leaf_weight=445.27900752425194 1561.3865265399218 1219.6661196798086 1731.1181761026382 743.58303578197956 282.66995720565319 80.134732127189636 78.850680485367775 4509.8783322572708 350.86985072493553 177.43073439598083 1432.7468009293079 2090.3369292169809
leaf_count=650 1349 1553 4481 1067 546 148 95 13969 886 221 3201 4000
internal_value=0 0.661637 -0.64763 0.453294 -0.740497 -0.784463 0.308945 -0.911372 -0.932673 0.463556 0.000811056 0.348158
internal_weight=0 7304 7399.95 5742.61 6954.67 6672 4522.95 4940.88 4860.75 3011.35 1511.6 2267.77
internal_count=32166 11486 20680 10137 20030 19484 8584 15003 14855 5288 3296 4221
shrinkage=0.0085


Tree=7
num_leaves=13
num_cat=0
split_feature=157 19 34 19 19 34 167 19 19 19 19 34
split_gain=6174.33 2317.49 1404.65 865.472 516.074 460.129 401.743 314.128 545.742 252.998 201.512 182.019
threshold=1.0000000180025095e-35 602.04500000000007 45.500000000000007 601.06500000000017 102.01500000000001 49.500000000000007 7.2925000000000013 104.51000000000002 156.01000000000002 1208.1350000000004 1206.0200000000002 43.500000000000007
decision_type=10 10 8 10 8 10 10 8 8 10 10 10
left_child=2 4 -1 7 -2 -6 11 -4 -9 10 -8 -3
right_child=1 6 3 -5 5 -7 9 8 -10 -11 -12 -13
leaf_value=0.0047095353689190211 0.013585638552014431 0.0088542184884816376 0.0018619279877080633 -0.012140529424131779 0.010747758197970789 0.0050184526246124196 -0.002570496157796229 -0.01032942653008934 -0.0037751504336808257 -0.00070773820545836036 -0.014790410166134905 -0.0010542351940557198
leaf_weight=867.82138548791409 1063.3858787119389 157.9206944257021 437.77208389341831 1640.7282457351685 1547.7136253416538 2937.0374878495932 136.20602162182331 1294.3294040709734 3159.8224334716797 242.9344530403614 346.39080658555031 870.60282865166664
leaf_count=1468 747 191 879 5770 1563 4800 334 4297 8261 550 1309 1997
internal_value=0 0.655073 -0.640989 -0.799786 0.971824 0.823132 -0.346741 -0.58887 -0.668316 -0.916364 -1.33509 0.0551309
internal_weight=0 7302.19 7400.47 6532.65 5548.14 4484.75 1754.05 4891.92 4454.15 725.531 482.597 1028.52
internal_count=32166 11491 20675 19207 7110 6363 4381 13437 12558 2193 1643 2188
shrinkage=0.0085


Tree=8
num_leaves=13
num_cat=0
split_feature=121 69 69 69 69 55 69 69 121 108 108 108
split_gain=1863.32 1105.4 1206.83 401.976 360.177 309.243 260.424 237.454 199.356 179.57 204.356 162.018
threshold=4.6550000000000011 38.184860000000008 36.55424 36.664800000000007 35.711000000000006 82.500000000000014 37.605000000000011 38.210000000000008 5.4500000000000011 67.500000000000014 112.50000000000001 61.500000000000007
decision_type=10 8 10 10 10 8 10 10 10 8 10 10
left_child=1 2 4 -2 -1 -4 9 8 -5 -7 -11 -3
right_child=3 11 5 7 -6 6 -8 -9 -10 10 -12 -13
leaf_value=0.013557831860009546 0.01049641407632773 0.009805529060057265 0.00013398340799988248 0.00099908279251087408 0.0024531708375126037 0.00096841552052932866 -0.0012328770762471649 0.0089106564628848826 0.0063055174212227087 -0.0073733072301184633 -0.0040379812987345895 0.0030160080145763173
leaf_weight=296.78814195096493 808.40089228749275 300.61070276796818 1068.4132103323936 1690.8764591962099 730.11819405853748 289.62712927162647 1230.928289860487 525.16877022385597 733.55140917003155 3003.4957965612411 2384.9350825846195 1637.9376452416182
leaf_count=210 839 340 2329 3516 1407 603 2864 635 1095 8999 6284 3045
internal_value=0 -0.205948 -0.353428 0.610173 0.666736 -0.484791 -0.562213 0.438786 0.306563 -0.652611 -0.693842 0.478948
internal_weight=0 10942.9 9004.31 3758 1026.91 7977.4 6908.99 2949.6 2424.43 5678.06 5388.43 1938.55
internal_count=32166 26081 22696 6085 1617 21079 18750 5246 4611 15886 15283 3385
shrinkage=0.0085


Tree=9
num_leaves=13
num_cat=0
split_feature=174 174 174 174 174 162 162 31 162 174 31 162
split_gain=14415.5 2304.82 962.854 752.04 626.736 305.985 240.097 167.035 141.459 110.036 104.953 81.8683
threshold=0.075000000000000025 0.03500000000000001 0.21500000000000002 -1.0000000180025095e-35 0.015000000000000001 84.050000000000011 35.100000000000009 119.50000000000001 53.95000000000001 0.39500000000000007 125.50000000000001 64.050000000000011
decision_type=10 8 10 10 10 8 10 10 8 10 8 10
left_child=1 3 -2 6 -5 10 -1 -7 -6 -4 -3 -10
right_child=2 5 9 4 8 7 -8 -9 11 -11 -12 -13
leaf_value=-0.0054805680736207726 0.0062667534687909374 0.0011503249966486799 0.011283554551468551 -0.013750826543474646 0.0050313432240702777 -0.0041834705461120019 0.0077931687464575542 0.00055011861436607661 -0.0090827699068628098 0.014423228619363453 0.0077764486816982691 -0.0052855524414147743
leaf_weight=199.83804994821548 2543.282042235136 495.69524039328098 1351.30197006464 2897.6130369901657 60.686967939138412 1708.6192207783461 193.32544158399105 785.77658504247665 1582.4944425225258 2057.457367554307 265.24080541729927 558.63569292426109
leaf_count=560 3839 1015 1295 10706 99 4536 256 1677 5048 1248 352 1535
internal_value=0 -0.81416 1.20316 -1.2093 -1.31204 -0.147348 0.122907 -0.316706 -0.909483 1.55062 0.407535 -0.952191
internal_weight=0 8747.93 5952.04 5492.59 5099.43 3255.33 393.163 2494.4 2201.82 3408.76 760.936 2141.13
internal_count=32166 25784 6382 18204 17388 7580 816 6213 6682 2543 1367 6583
shrinkage=0.0085


Tree=10
num_leaves=13
num_cat=0
split_feature=174 174 174 174 174 157 24 24 24 157 108 174
split_gain=14336.6 1539.28 1476.27 688.994 613.081 353.181 319.876 237.294 196.897 146.961 146.322 120.961
threshold=0.055000000000000007 0.22500000000000003 0.03500000000000001 -1.0000000180025095e-35 0.015000000000000001 94.050000000000011 1.6650000000000003 1.5250000000000001 0.37500000000000006 81.850000000000009 118.50000000000001 0.075000000000000025
decision_type=10 10 8 10 10 8 8 8 10 8 10 10
left_child=2 6 3 9 -5 -4 11 -7 -6 -1 -9 -2
right_child=1 -3 5 4 8 7 -8 10 -10 -11 -12 -13
leaf_value=0.0073251387727246492 -0.0013417524733903678 0.013245070197477397 0.0018135468047170984 -0.013334739577941393 -0.0029342591254230225 -0.0083339704452772608 0.0077316466861316229 -0.0044344409229621941 -0.0088556971575968219 -0.0034713839626735144 0.0033591353570250507 0.0038808799088070776
leaf_weight=159.83487191796303 427.24073958396912 3405.7120921015739 1002.7743190228939 2959.5506875216961 539.47062650322914 692.7613862901926 1770.5687427073717 444.80405949056149 1649.5229008495808 210.70285150408745 285.3205887824297 1275.8429437726736
leaf_count=218 1000 2478 1980 10843 1363 2159 2387 1195 5221 546 528 2248
internal_value=0 1.08052 -0.891376 -1.17714 -1.27193 -0.24104 0.611981 -0.561341 -0.870307 0.139459 -0.163197 0.30236
internal_weight=0 6879.36 7944.74 5519.08 5148.54 2425.66 3473.65 1422.89 2188.99 370.538 730.125 1703.08
internal_count=32166 8113 24053 18191 17427 5862 5635 3882 6584 764 1723 3248
shrinkage=0.0085


Tree=11
num_leaves=13
num_cat=0
split_feature=164 23 5 85 81 164 85 23 23 23 81 23
split_gain=4953.81 2281.4 1861 828.722 442.497 388.145 356.988 356.243 315.937 237.398 152.464 118.233
threshold=1.0000000180025095e-35 21.100000000000005 1.0000000180025095e-35 26.500000000000004 73.500000000000014 127.55000000000001 27.500000000000004 22.050000000000004 21.100000000000005 26.050000000000004 77.500000000000014 48.050000000000004
decision_type=10 8 2 10 10 10 10 10 8 10 8 10
left_child=1 6 5 4 11 -2 -1 -4 -7 -6 -5 -3
right_child=2 3 7 10 9 8 -8 -9 -10 -11 -12 -13
leaf_value=-0.010807516319471107 0.01138570167815614 -3.6047139893693196e-05 -0.0087772867449253719 0.0084560159713950225 -0.0067155134502593717 0.0025166301680174473 -0.0037968097248319279 0.0025111073581549933 0.0082157859121302114 -0.0015711006074802458 0.0028416586681264317 0.0057970688508247612
leaf_weight=2655.8195703178644 1777.507868245244 946.71417960524559 606.6226976364851 523.10109768807888 1546.0429537594318 1018.5796832293272 655.2806262075901 302.32597149908543 2273.9594812095165 1117.2980466783047 1056.2920256108046 341.11980956792831
leaf_count=9026 1627 2092 1910 665 4560 1929 1722 577 2874 2650 2003 531
internal_value=0 -0.451899 0.726549 -0.058819 -0.303575 0.962775 -1.10835 -0.590814 0.759235 -0.536271 0.553337 0.177571
internal_weight=0 8841.67 5979 5530.57 3951.17 5070.05 3311.1 908.949 3292.54 2663.34 1579.39 1287.83
internal_count=32166 23249 8917 12501 9833 6430 10748 2487 4803 7210 2668 2623
shrinkage=0.0085


Tree=12
num_leaves=13
num_cat=0
split_feature=43 3 162 3 162 162 150 168 150 57 3 3
split_gain=7575.13 1420.43 927.95 561.685 331.04 329.532 232.288 205.144 285.832 174.473 142.611 142.511
threshold=1.0000000180025095e-35 73.500000000000014 432.50000000000006 72.500000000000014 59.050000000000004 432.50000000000006 86.500000000000014 7.230500000000001 177.50000000000003 82.500000000000014 52.500000000000007 57.500000000000007
decision_type=8 8 8 8 8 8 8 10 8 10 10 10
left_child=1 2 -1 4 -2 -3 -4 10 -9 -7 -6 -8
right_child=3 5 6 -5 7 9 11 8 -10 -11 -12 -13
leaf_value=-0.00096080721876539083 0.010094544128071033 0.0044343561320331218 0.0062377708841199423 0.0091021984928951177 0.0013609611677808874 0.0025167413682938081 -0.012584700821381901 -0.0083120213335751529 0.0026176800096496824 -0.0036460604255111276 0.0058042317558132306 -0.0092173469378206366
leaf_weight=902.8438762575388 612.09294860064983 608.12146079540253 58.181706741452217 3152.0505782663822 729.09626598656178 400.1677865087986 1759.354597479105 230.75398431718349 685.63328650593758 1933.7491100281477 1844.8321013748646 1900.9875847995281
leaf_count=2051 641 1025 89 3734 1472 777 6329 713 1288 5067 2843 6137
internal_value=0 -0.676898 -1.02265 0.753365 0.509327 -0.133681 -1.24344 0.390232 -0.0159397 -0.304553 0.534873 -1.27497
internal_weight=0 7563.41 4621.37 7254.46 4102.41 2942.04 3718.52 3490.32 916.387 2333.92 2573.93 3660.34
internal_count=32166 21475 14606 10691 6957 6869 12555 6316 2001 5844 4315 12466
shrinkage=0.0085


Tree=13
num_leaves=13
num_cat=0
split_feature=118 116 107 118 77 79 170 77 81 77 81 118
split_gain=5322.79 1187.51 662.548 578.276 319.624 230.405 256.121 229.071 176.408 166.011 145.535 138.275
threshold=1.7850000000000004 1.2850000000000004 135.50000000000003 3.5150000000000001 103.50000000000001 72.500000000000014 1.0000000180025095e-35 103.50000000000001 57.500000000000007 107.50000000000001 71.500000000000014 0.64500000000000013
decision_type=10 10 8 10 10 10 10 10 8 10 8 10
left_child=1 2 7 -2 5 6 8 -1 -4 11 -6 -3
right_child=3 9 4 -5 10 -7 -8 -9 -10 -11 -12 -13
leaf_value=-0.0082076921761894406 0.0066562865592409556 -6.4571829757208136e-05 0.0072732336390098724 0.014017491722515551 0.006402468813404805 -0.0076619740625020133 0.0029296387199054825 -0.0030528709712191182 -0.003835658088883977 0.0064598287910425387 -0.00017807062123223781 0.0053458756456453548
leaf_weight=2414.9617394655943 1651.6468143761158 1171.4217204898596 106.68317763507366 1449.3403098881245 288.88143347203732 751.48539265990257 536.23956248164177 841.1149628162384 2915.0483733564615 696.2140293866396 1511.0535223186016 480.99659068882465
leaf_count=7517 2387 2581 149 902 428 2291 987 2131 7666 1024 3337 766
internal_value=0 -0.285274 -0.444721 1.18804 -0.250491 -0.398309 -0.291931 -0.809049 -0.404973 0.350456 0.103357 0.177705
internal_weight=0 11714.1 9365.47 3100.99 6109.39 4309.46 3557.97 3256.08 3021.73 2348.63 1799.93 1652.42
internal_count=32166 28877 24506 3289 14858 11093 8802 9648 7815 4371 3765 3347
shrinkage=0.0085


Tree=14
num_leaves=13
num_cat=0
split_feature=43 70 74 79 70 74 74 64 79 70 79 64
split_gain=7406.07 1072.37 1033.99 631.709 616.311 401.246 359.21 194.783 191.333 187.461 168.59 145.702
threshold=1.0000000180025095e-35 35.180000000000007 61.500000000000007 72.500000000000014 36.001440000000009 49.500000000000007 41.500000000000007 72.500000000000014 74.500000000000014 35.420000000000009 73.500000000000014 93.500000000000014
decision_type=8 10 10 10 10 8 8 10 10 8 10 8
left_child=2 -2 4 5 10 -3 -6 -5 -8 -4 -1 -7
right_child=1 3 9 7 6 11 8 -9 -10 -11 -12 -13
leaf_value=0.0035838087977024639 0.01227086318409721 0.0094103739759987138 0.0001277183665815165 0.0057274919385974605 0.0015509770843443176 0.0080530305907558063 -0.0054833167375466473 -0.0037186927905738768 -0.014361068488600678 -0.009498621810358052 -0.0089415197860600835 0.0032167259729981882
leaf_weight=1023.5765147209167 1685.8216978013515 1520.9658986926079 152.58840996026993 198.74195423722267 528.05372735857964 547.49512888491154 2236.7771053910255 757.66236618161201 190.36859267950058 3345.7453785091639 83.625827237963676 2541.380331069231
leaf_count=1845 1354 1722 333 307 1069 698 6302 1969 725 10933 268 4641
internal_value=0 0.744902 -0.669552 0.533178 -0.326287 0.686622 -0.564696 -0.206258 -0.727307 -1.06805 0.309904 0.479429
internal_weight=0 7252.07 7560.74 5566.25 4062.4 4609.84 2955.2 956.404 2427.15 3498.33 1107.2 3088.88
internal_count=32166 10691 21475 9337 10209 7061 8096 2276 7027 11266 2113 5339
shrinkage=0.0085


Tree=15
num_leaves=13
num_cat=0
split_feature=29 163 29 111 74 163 74 64 116 163 64 116
split_gain=6864.9 1482.15 947.13 508.215 498.917 369.988 319.989 313.709 225.666 219.227 181.661 178.295
threshold=4.5000000000000009 1.0000000180025095e-35 1.5000000000000002 9.7500000000000018 57.500000000000007 192.26785715000003 45.500000000000007 73.500000000000014 1.675 190.12500000000003 74.500000000000014 1.3350000000000002
decision_type=10 10 10 8 10 10 8 8 10 8 10 10
left_child=2 3 7 -2 -4 -3 -5 -1 10 -6 -7 -9
right_child=1 5 4 6 9 8 -8 11 -10 -11 -12 -13
leaf_value=0.012464203435367853 -0.0036312981806525348 0.0065235820220071513 0.0048679776198859428 -0.0028049128476173219 0.007185669209176117 -0.00059934929053608987 -0.0106643282216961 0.0056766075097788521 0.0083133491575629846 -0.0035234536569250653 -0.0085407508800100472 0.0097385885845986484
leaf_weight=825.68947744369507 1240.8163321763277 562.29659911990166 1508.4969471544027 418.11432263255119 156.06335264444351 548.93125307559967 3627.500729367137 3053.6223072558641 131.28459443151951 1177.2290952652693 335.22780540585518 1051.9168272316456
leaf_count=639 3253 814 2494 1051 213 1220 12346 4733 162 3056 1045 1140
internal_value=0 -0.733561 0.63873 -0.987406 0.178817 0.116928 -1.15914 0.903711 -0.243329 -0.266765 -0.425156 0.7904
internal_weight=0 6864.17 7773.02 5286.43 2841.79 1577.74 4045.62 4931.23 1015.44 1333.29 884.159 4105.54
internal_count=32166 19891 12275 16650 5763 3241 13397 6512 2427 3269 2265 5873
shrinkage=0.0085


Tree=16
num_leaves=13
num_cat=0
split_feature=162 102 102 93 40 57 162 102 102 93 93 40
split_gain=5494.59 2297.76 1154.13 470.649 303.907 290.563 191.37 187.544 166.719 152.413 150.034 131.048
threshold=1.0000000180025095e-35 24.050000000000004 21.100000000000005 118.50000000000001 149.50000000000003 100.50000000000001 60.050000000000004 16.950000000000003 30.050000000000004 97.500000000000014 1.0000000180025095e-35 137.90000000000003
decision_type=10 8 8 8 10 10 10 10 10 10 10 10
left_child=1 7 4 9 5 6 -2 -1 -4 -3 -8 -12
right_child=2 3 8 -5 -6 -7 10 -9 -10 -11 11 -13
leaf_value=-0.011125677108990888 0.0051654303161213664 0.0071486492070000412 0.0060135673993537402 -0.0028635837331439946 0.011687828705301866 0.0028809496311022614 -0.011197633672690034 -0.0071163233343083925 0.0094588613769037242 0.0013916204345677328 0.00064789560304020913 -0.006072067495415211
leaf_weight=2530.6699916422367 189.38484168052673 505.96321159601212 1692.3555005788803 2153.0695193707943 185.64100687205791 1563.9745417833328 178.68497259914875 1271.3475234806538 2555.2875342667103 968.98762075603008 430.59164449572563 407.69624111056328
leaf_count=8781 299 721 2526 5469 160 2881 610 3840 2826 2000 900 1153
internal_value=0 -0.608112 0.617527 -0.0387734 0.137632 0.0544976 -0.314143 -1.1513 0.95142 0.396295 -0.486094 -0.308259
internal_weight=0 7430.04 7203.62 3628.02 2955.97 2770.33 1206.36 3802.02 4247.64 1474.95 1016.97 838.288
internal_count=32166 20811 11355 8190 6003 5843 2962 12621 5352 2721 2663 2053
shrinkage=0.0085


Tree=17
num_leaves=13
num_cat=0
split_feature=41 183 74 41 41 74 74 41 183 183 183 74
split_gain=3138.65 1939.18 832.296 481.364 421.097 391.669 331.84 238.477 214.094 152.727 259.357 150.815
threshold=35.635000000000005 9.5000000000000018 51.500000000000007 34.605000000000011 38.315000000000005 55.500000000000007 59.500000000000007 36.180000000000007 11.500000000000002 8.5000000000000018 6.5000000000000009 34.500000000000007
decision_type=10 2 8 8 10 8 8 10 2 2 2 10
left_child=3 2 11 -1 7 -3 -5 -4 -7 10 -9 -2
right_child=1 5 4 6 -6 8 -8 9 -10 -11 -12 -13
leaf_value=0.012230592595339753 0.0058578389146606517 0.0051424873108232893 -0.0031249941410151009 0.0080921016408100534 0.0069051871762520799 0.001010782066697266 0.0011240145940382281 -0.0076758961955307892 -0.0066572184342011684 -0.0049451977404325271 -0.014327872931284777 -0.00090895588408213533
leaf_weight=1056.8583623021841 280.52468003332615 2000.9050621390343 964.66264201700687 1169.9534808248281 163.45040293037891 2097.1715104132891 855.12667962908745 2662.5785105824471 300.43807530403137 1016.7616108059883 504.69889131188393 1556.8013969063759
leaf_count=832 425 3215 2466 1489 233 4365 1768 8174 888 2820 1919 3572
internal_value=0 -0.24402 -0.565435 0.891791 -0.766083 0.278391 0.605997 -0.816271 0.00571854 -0.919633 -1.02797 0.0146527
internal_weight=0 11548 7149.48 3081.94 5312.15 4398.51 2025.08 5148.7 2397.61 4184.04 3167.28 1837.33
internal_count=32166 28077 19609 4089 15612 8468 3257 15379 5253 12913 10093 3997
shrinkage=0.0085


Tree=18
num_leaves=13
num_cat=0
split_feature=158 19 19 19 19 60 60 19 158 158 4 135
split_gain=5348.05 2250.3 960.96 523.161 501.548 469.757 463.584 378.177 232.697 181.311 158.07 164.968
threshold=1.0000000180025095e-35 604.53500000000008 601.54500000000019 102.01500000000001 1303.0150000000001 20.500000000000004 2.5000000000000004 455.51000000000005 30.750000000000004 32.850000000000001 22.060125770000003 1.3650000000000004
decision_type=10 10 10 8 10 8 10 10 10 10 8 10
left_child=2 3 5 -2 9 6 -1 10 -5 -3 -8 -12
right_child=1 4 -4 8 -6 -7 7 -9 -10 -11 11 -13
leaf_value=0.0058214140795391483 0.013141029175547839 -0.0018864473476906294 -0.01052404543110577 0.0096464833268832713 0.0029231056588657788 0.004495994842726489 -0.0022006983326124255 -0.00042003016175156825 0.0053077288206339222 -0.0092401503891900057 -0.007292415120606713 0.0024804576439431359
leaf_weight=316.30289778113365 1070.293232306838 362.28406302630901 1790.8504000157118 1240.5720381140709 586.07900999486446 498.78511092066765 628.5604083687067 1101.9155055880547 3206.0167122632265 734.6164388358593 2960.9777628034353 129.94422626495361
leaf_count=500 726 857 6115 1335 1082 866 1560 2495 5015 2347 9016 252
internal_value=0 0.609436 -0.600017 0.918211 -0.402644 -0.397186 -0.487154 -0.564116 0.766959 -0.801623 -0.716544 -0.809524
internal_weight=0 7199.86 7427.34 5516.88 1682.98 5636.49 5137.7 4821.4 4446.59 1096.9 3719.48 3090.92
internal_count=32166 11362 20804 7076 4286 14689 13823 13323 6350 3204 10828 9268
shrinkage=0.0085


Tree=19
num_leaves=13
num_cat=0
split_feature=92 145 165 145 107 92 92 54 54 107 145 107
split_gain=2849.05 1302.46 602.387 548.708 393.274 373.923 223.63 229.624 211.434 136.547 142.366 131.627
threshold=97.500000000000014 1.2450000000000003 16.150000000000002 1.5250000000000001 123.50000000000001 78.500000000000014 108.50000000000001 57.500000000000007 54.500000000000007 157.50000000000003 2.0050000000000003 210.50000000000003
decision_type=8 10 10 10 8 10 10 8 8 10 10 8
left_child=3 2 4 5 -2 11 -6 -8 -3 10 -10 -1
right_child=1 8 -4 -5 6 -7 7 -9 9 -11 -12 -13
leaf_value=0.0050764615242643429 -0.0087282402608772659 0.0088136514652736343 0.0011383280108519724 0.010050883291538526 -0.00090290452851593105 0.0015991055933266829 0.0038436503126165087 -0.0057099842136808607 -0.0034163449937758047 0.0039817186312682855 0.0038848728356619903 0.010862697374425023
leaf_weight=684.02491219341755 1807.4590832591057 384.23829261958599 1223.8996714651585 1299.6254182010889 1206.7166894078255 2317.0514048337936 192.3606718480587 3191.7179843634367 515.842209815979 1003.8030028492212 307.70703598856926 488.44513559341431
leaf_count=1094 5797 450 2488 1346 2795 4647 340 9129 1329 1743 543 465
internal_value=0 -0.312691 -0.50873 0.627821 -0.631681 0.421117 -0.476001 -0.607794 0.362863 0.220885 -0.080765 0.881238
internal_weight=0 9833.74 7622.15 4789.15 6398.25 3489.52 4590.8 3384.08 2211.59 1827.35 823.549 1172.47
internal_count=32166 24614 20549 7552 18061 6206 12264 9469 4065 3615 1872 1559
shrinkage=0.0085


Tree=20
num_leaves=13
num_cat=0
split_feature=62 123 93 62 108 108 123 170 62 123 93 62
split_gain=4039.28 872.695 553.426 472.868 254.531 225.159 221.172 157.833 133.306 120.883 119.959 118.128
threshold=86.500000000000014 144.10000000000002 117.50000000000001 77.500000000000014 115.50000000000001 56.500000000000007 133.10000000000002 101.10000000000001 98.500000000000014 135.20000000000002 115.50000000000001 88.500000000000014
decision_type=10 10 8 8 10 8 8 10 10 8 8 10
left_child=3 2 6 -1 5 -4 -2 8 11 -7 -5 -6
right_child=1 -3 4 10 7 9 -8 -9 -10 -11 -12 -13
leaf_value=0.010794243749744508 0.004707407402618765 0.0038432582764477969 0.0032353269731658632 0.007581092790604556 0.0014533425625234393 -0.0032572937280188857 -0.0015956365639160082 0.0032995134381532056 0.0039426469567580133 -0.0075295958875425716 0.0031117746316530253 -0.0048435362722759855
leaf_weight=1755.9332102835178 474.74868321418762 1295.5067487061024 166.61105315387249 669.13087473809719 239.89750257134438 569.32215632498264 2620.255290299654 258.9957696646452 155.19426020979881 3059.2188098877668 1240.0675862431526 2060.6174638867378
leaf_count=1700 791 2262 304 891 492 1469 6201 463 277 9340 2289 5687
internal_value=0 -0.318148 -0.422072 0.895329 -0.587579 -0.754848 -0.0738832 -0.353621 -0.431954 -0.807054 0.550575 -0.492505
internal_weight=0 10900.4 9604.86 3665.13 6509.86 3795.15 3095 2714.7 2455.71 3628.54 1909.2 2300.51
internal_count=32166 27286 25024 4880 18032 11113 6992 6919 6456 10809 3180 6179
shrinkage=0.0085


Tree=21
num_leaves=13
num_cat=0
split_feature=174 174 174 174 174 43 174 43 113 113 114 45
split_gain=12673.7 1772.32 1012.92 568.777 554.168 284.866 178.498 142.015 126.383 117.201 116.121 111.483
threshold=0.075000000000000025 0.03500000000000001 0.21500000000000002 -1.0000000180025095e-35 0.015000000000000001 1.0000000180025095e-35 0.045000000000000005 1.0000000180025095e-35 34.050000000000004 26.650000000000002 34.45000000000001 65.500000000000014
decision_type=10 8 10 10 10 8 10 10 10 8 10 8
left_child=1 3 -2 7 -5 6 9 10 -6 -3 -1 -11
right_child=2 5 -4 4 8 -7 -8 -9 -10 11 -12 -13
leaf_value=0.00025496874126444805 0.0053702343892384537 0.00045273703404336338 0.012583640330844404 -0.012623676827461827 -0.0052509714090552134 0.0013592026864711509 -0.00082555039629984589 0.0069266420092761963 -0.0093674670400746684 0.0042934724957915463 -0.013390688116212249 -0.0082633528140161581
leaf_weight=153.48051306605339 2389.3481204509735 161.58209528028965 3424.2555436044931 2953.8770751655102 1277.0305655002594 1385.6178520172834 825.80654208362103 153.77729481458664 937.51930423080921 54.311796247959137 63.323278948664665 783.25874714553356
leaf_count=337 3771 350 2562 10805 3583 2798 1898 214 3060 93 235 2460
internal_value=0 -0.773085 1.13173 -1.11572 -1.20153 -0.181852 -0.441386 0.0805941 -0.82299 -0.725654 -0.440131 -0.876035
internal_weight=0 8749.59 5813.6 5539.01 5168.43 3210.58 1824.96 370.581 2214.55 999.153 216.804 837.571
internal_count=32166 25833 6333 18234 17448 7599 4801 786 6643 2903 572 2553
shrinkage=0.0085


Tree=22
num_leaves=13
num_cat=0
split_feature=103 170 67 89 108 108 144 89 108 108 182 103
split_gain=992.83 707.135 464.579 364.788 291.888 320.392 243.719 202.129 118.862 117.896 114.575 105.705
threshold=7.3500000000000005 1.0000000180025095e-35 112.50000000000001 115.50000000000001 60.500000000000007 108.50000000000001 38.050000000000004 119.50000000000001 63.500000000000007 64.500000000000014 1.0000000180025095e-35 8.0500000000000025
decision_type=8 10 10 10 8 8 8 10 8 10 8 10
left_child=8 2 -2 9 -4 11 -5 10 -1 -3 -7 -6
right_child=1 3 4 6 5 7 -8 -9 -10 -11 -12 -13
leaf_value=0.012335116462272927 0.0041182902860434009 0.010026540182920282 0.0050113899696240093 -0.0062712726232250788 -0.0026247688253439451 -0.0011560105690848835 0.0035635226086323845 -0.006672062794470697 0.0054662311541909528 0.0040320741866785477 0.0053168567370115169 -0.0056679332448699273
leaf_weight=212.46925067901611 854.78076177835464 275.02699729800224 366.26269349455833 429.63885042071342 1244.0310083180666 4696.1256836056709 315.26607990264893 478.16165962815285 1286.9208618253469 1730.3257372975349 205.84988816082478 2461.9037220627069
leaf_count=164 1492 281 589 1234 3113 11027 556 1433 1995 2918 336 7028
internal_value=0 -0.10108 -0.221298 0.349382 -0.285154 -0.320451 -0.247964 -0.164549 0.758005 0.571341 -0.103953 -0.54671
internal_weight=0 13057.4 10307.1 2750.26 9452.33 9086.07 744.905 5380.14 1499.39 2005.35 4901.98 3705.93
internal_count=32166 30007 25018 4989 23526 22937 1790 12796 2159 3199 11363 10141
shrinkage=0.0085


Tree=23
num_leaves=13
num_cat=0
split_feature=66 115 66 115 115 66 128 66 115 71 66 57
split_gain=5228.84 974.648 660.525 373.119 161.887 151.973 127.766 113.558 140.654 229.841 113.119 104.472
threshold=83.500000000000014 1.2550000000000001 69.500000000000014 1.6850000000000003 1.5550000000000004 91.500000000000014 2.9500000000000006 106.50000000000001 1.5850000000000002 83.500000000000014 55.500000000000007 75.500000000000014
decision_type=10 10 10 10 10 10 8 10 10 8 8 8
left_child=2 5 4 -4 10 -2 -7 8 9 -3 -1 -8
right_child=1 7 3 -5 -6 6 11 -9 -10 -11 -12 -13
leaf_value=0.011305113602657126 -0.003186667092852979 -0.0088935237965906827 0.0022231465533300672 0.0093998996722734016 0.012856846482607962 0.0018799045000515034 -0.00017235129971057795 -0.0024502084422609528 0.0048532380619023515 0.0024954389931446655 0.0065827019973864077 -0.0066159323635641108
leaf_weight=556.83760687708855 1566.5723320394754 171.85519440472126 2395.6978562623262 669.74968883395195 800.61295984685421 137.98828206956387 188.71934798359871 446.38368798792362 798.12657997012138 498.47336381673813 1086.6362373679876 5237.3453678935766
leaf_count=502 4011 545 4633 744 559 275 421 1100 1305 954 1553 15564
internal_value=0 -0.480239 0.755491 0.446168 1.14328 -0.650338 -0.727836 0.153124 0.287423 -0.0501129 0.963005 -0.752006
internal_weight=0 9045.46 5509.53 3065.45 2444.09 7130.63 5564.05 1914.84 1468.46 670.329 1643.47 5426.06
internal_count=32166 24175 7991 5377 2614 20271 16260 3904 2804 1499 2055 15985
shrinkage=0.0085


Tree=24
num_leaves=13
num_cat=0
split_feature=110 76 170 4 76 110 110 110 49 76 128 170
split_gain=3040.51 1096.47 298.887 257.864 247.988 213.558 209.449 150.399 145.932 125.832 124.799 100.092
threshold=19.950000000000003 51.500000000000007 79.950000000000017 24.297964805000003 61.500000000000007 21.250000000000004 14.65 31.050000000000004 112.50000000000001 35.500000000000007 3.5500000000000003 65.950000000000017
decision_type=8 8 8 10 10 10 10 8 8 10 8 8
left_child=4 5 -3 7 6 -2 -1 -4 10 -7 -5 -11
right_child=1 2 3 8 -6 9 -8 -9 -10 11 -12 -13
leaf_value=0.011045497927293282 0.0052822099796557631 0.0026244471196669263 -0.0034622210138619443 -0.00022526249059306986 0.0030602385182573089 0.0055031188147386927 0.0060998317903316066 0.0010117816715710687 -0.0019919105169759143 0.0086801568643543759 -0.0063445353752951969 -0.001281156157149112
leaf_weight=1004.7971166670322 1077.1385343521833 477.63945370912552 1763.3063983768225 256.0592138171196 1024.4732327312231 286.58602812886238 1620.0342096686363 783.58238427340984 777.752107873559 76.996558248996735 4148.6661873012781 1254.5910787135363
leaf_count=895 1713 889 4614 567 1880 441 2385 1657 1904 89 12201 2931
internal_value=0 -0.276828 -0.458569 -0.506016 0.777672 0.276498 0.940557 -0.245336 -0.634074 0.0467221 -0.7046 -0.0826045
internal_weight=0 10902.3 8207.01 7729.37 3649.3 2695.31 2624.83 2546.89 5182.48 1618.17 4404.73 1331.59
internal_count=32166 27006 21832 20943 5160 5174 3280 6271 14672 3461 12768 3020
shrinkage=0.0085


Tree=25
num_leaves=13
num_cat=0
split_feature=26 118 19 19 119 118 19 118 19 93 19 19
split_gain=6186.05 3293.11 1048.85 856.184 374.738 318.444 313.597 302.026 234.118 219.283 205.37 303.236
threshold=2.5000000000000004 1.8950000000000002 551.5100000000001 601.05500000000006 79.500000000000014 2.4750000000000005 501.02500000000003 4.3500000000000005 1352.5550000000001 115.50000000000001 156.01000000000002 304.01000000000005
decision_type=10 10 8 8 8 10 10 10 10 8 10 10
left_child=3 2 4 -1 -2 8 9 -3 -5 -6 -11 -12
right_child=1 7 -4 5 6 -7 -8 -9 -10 10 11 -13
leaf_value=0.010567577836884933 0.0048641922788903707 0.0053775889443265215 -0.0099748094048827309 -0.0038509131193395396 -0.0018165472206601572 0.01149016580795258 0.00052780273353951284 0.013480019862871544 0.0061863939659333655 -0.0083658466658302708 -0.00067548644352332927 -0.0071548504349303113
leaf_weight=3375.2361204326153 355.75772117078304 1027.2570953816175 2682.2334856837988 553.45809833705425 1201.3357414454222 187.7944842427969 886.19370345771313 492.31173264980316 240.54630596935749 1540.7814324051142 937.98941347002983 1177.3373553007841
leaf_count=3266 592 1619 9004 1441 2890 161 1884 314 360 4908 2140 3587
internal_value=0 -0.417148 -0.652357 1.00418 -0.423102 0.18202 -0.484808 0.941874 -0.0949713 -0.58461 -0.706412 -0.503866
internal_weight=0 10301.2 8781.63 4357.04 6099.4 981.799 5743.64 1519.57 794.004 4857.44 3656.11 2115.33
internal_count=32166 26938 25005 5228 16001 1962 15409 1933 1801 13525 10635 5727
shrinkage=0.0085


Tree=26
num_leaves=13
num_cat=0
split_feature=164 23 23 23 164 69 69 69 69 164 88 69
split_gain=4036.84 1952.77 859.552 630.103 432.789 432.498 384.347 240.266 206.03 190.253 186.948 171.003
threshold=1.0000000180025095e-35 18.950000000000003 22.050000000000004 29.100000000000005 110.41666665000001 36.579240000000006 38.079300000000011 36.664800000000007 38.315000000000005 122.08333335000002 88.500000000000014 36.664800000000007
decision_type=10 8 10 10 10 10 10 8 8 10 8 8
left_child=1 10 4 5 -2 -3 -7 -6 -9 -4 -1 -5
right_child=2 3 9 11 7 6 -8 8 -10 -11 -12 -13
leaf_value=0.00028689026357006647 0.0081447217293635858 0.0040568644590156322 0.011272917568267598 0.0073215494738152346 0.0077343195951581917 -0.0054368440183828557 0.0034636592534275428 -0.0023375981441761669 0.004679406043943163 0.0069245941954360433 -0.010066020795646526 0.001429431260628356
leaf_weight=132.18088944256306 641.17723885178566 521.27430832386017 1155.3699068874121 437.11924804747105 265.61390253901482 2742.8250239342451 401.48340274393559 1478.6980290412903 379.57216988503933 1976.7307474464178 2606.4989451169968 1914.0809868425131
leaf_count=291 786 922 987 603 339 7852 737 3587 621 2675 8851 3915
internal_value=0 -0.425463 0.644837 -0.106797 0.238398 -0.365976 -0.505854 0.0209095 -0.106244 1.00354 -1.12541 0.297209
internal_weight=0 8755.46 5897.16 6016.78 2765.06 3665.58 3144.31 2123.88 1858.27 3132.1 2738.68 2351.2
internal_count=32166 23171 8995 14029 5333 9511 8589 4547 4208 3662 9142 4518
shrinkage=0.0085


Tree=27
num_leaves=13
num_cat=0
split_feature=110 69 69 110 120 171 69 110 69 120 69 120
split_gain=3109.66 605.231 663.248 517.472 431.669 326.033 263.949 226.978 171.113 167.06 192 143.798
threshold=20.050000000000004 38.210000000000008 36.155000000000008 16.850000000000005 87.500000000000014 110.81318685000001 36.420000000000009 28.050000000000004 37.526500000000006 83.500000000000014 36.612020000000008 212.50000000000003
decision_type=8 8 10 10 8 8 8 8 10 8 8 10
left_child=3 2 -2 9 -4 -6 -5 8 -7 -1 -11 -10
right_child=1 -3 4 6 5 7 -8 -9 11 10 -12 -13
leaf_value=0.013069100179433753 0.0082460726782469188 0.002782403048721497 0.0030357801494235175 0.011126363532430586 0.0062165404306664231 -0.006657960181204424 0.0022876275321574275 -0.0027193894509539448 -0.0054248621511445707 0.012793049146959824 0.0058089600062395516 0.00060732734982337888
leaf_weight=555.11154103279114 341.3390599489212 1331.5027292072773 613.05760754644871 274.99097806215286 204.45293334126472 3693.0453604310751 2161.9870693981647 2799.2221664041281 690.42738009989262 382.93122513592243 1113.5225581675768 486.05323997139931
leaf_count=363 424 2495 1146 245 294 11041 4147 7097 1947 262 1655 1050
internal_value=0 -0.301006 -0.395807 0.698408 -0.450802 -0.513744 0.3867 -0.546989 -0.677454 1.06848 0.894062 -0.344982
internal_weight=0 10159.1 8827.6 4488.54 8486.26 7873.2 2436.98 7668.75 4869.53 2051.57 1496.45 1176.48
internal_count=32166 25494 22999 6672 22575 21429 4392 21135 14038 2280 1917 2997
shrinkage=0.0085


Tree=28
num_leaves=13
num_cat=0
split_feature=158 3 98 98 3 85 25 25 85 85 158 3
split_gain=4837.75 1211.77 959.185 756.012 524.789 371.311 267.562 262.982 249.412 179.445 168.665 162.531
threshold=1.0000000180025095e-35 76.500000000000014 2.5500000000000003 3.0500000000000003 67.500000000000014 23.500000000000004 0.63500000000000012 0.58500000000000008 28.500000000000004 20.500000000000004 35.250000000000007 54.500000000000007
decision_type=10 8 8 8 8 8 10 10 10 10 10 10
left_child=1 2 -1 6 7 -4 -2 10 -3 -6 -5 -7
right_child=3 8 5 4 9 11 -8 -9 -10 -11 -12 -13
leaf_value=0.0016116195330462173 0.0061787111286406883 -0.001335701223711001 -0.010724437382320717 0.00042723448911830231 0.0024282312210102651 -0.0091835467962954193 0.011239211066240953 0.0036504321028978551 0.0051544823291262759 0.0074009122906520475 -0.0060261281691925397 -0.003513576163997919
leaf_weight=760.35614667832851 2069.2874961495399 1888.6199811398983 2625.1932344734669 517.8067390024662 901.26813299953938 566.48221495747566 1191.8981982171535 609.01668073236942 552.67887291312218 1257.6156670898199 671.41836312413216 1032.5390121042728
leaf_count=1564 2980 4540 9137 1090 1708 1867 1008 1049 921 1659 1905 2738
internal_value=0 -0.561444 -0.844132 0.588171 0.294286 -1.03024 0.944659 -0.104666 0.0157275 0.626616 -0.378356 -0.64995
internal_weight=0 7425.87 4984.57 7218.31 3957.13 4224.21 3261.19 1798.24 2441.3 2158.88 1189.23 1599.02
internal_count=32166 20767 15306 11399 7411 13742 3988 4044 5461 3367 2995 4605
shrinkage=0.0085


Tree=29
num_leaves=13
num_cat=0
split_feature=173 173 173 173 51 173 173 50 50 46 50 50
split_gain=12609.7 1793.48 1270.84 561.071 389.773 314.444 204.874 172.53 151.874 102.302 96.7081 78.7087
threshold=0.12500000000000003 0.055000000000000007 0.28500000000000009 -1.0000000180025095e-35 116.50000000000001 0.025000000000000005 0.46500000000000002 28.500000000000004 38.500000000000007 30.500000000000004 32.500000000000007 44.500000000000007
decision_type=10 8 10 10 8 10 10 8 10 8 8 8
left_child=1 3 7 8 9 -5 -4 -2 -1 -3 -7 -9
right_child=2 4 6 5 -6 10 -8 11 -10 -11 -12 -13
leaf_value=0.0066690303447082483 0.010018726023913176 0.0059723279084807753 0.0090991570835363862 -0.013822525518344817 0.0015105444585994797 -0.0026661785187619253 0.013100692809761838 0.0048826808064127269 -0.0047243402897910137 -0.0048003101515733193 -0.0096618486583781808 0.0016578385844371938
leaf_weight=132.97896002233028 302.53529092669487 65.052322775125504 1430.7219602167606 2146.3418393582106 1134.8719553798437 155.87372215092182 2648.5495585948229 1031.8234434276819 230.50520971417427 2386.8904431313276 1805.5764829367399 1167.1528127491474
leaf_count=189 314 98 1618 8236 2308 395 1729 1682 629 6597 6033 2338
internal_value=0 -0.833538 1.03216 -1.25607 -0.306708 -1.36143 1.37629 0.470811 -0.0647776 -0.530966 -1.07142 0.373186
internal_weight=0 8058.09 6580.78 4471.28 3586.81 4107.79 4079.27 2501.51 363.484 2451.94 1961.45 2198.98
internal_count=32166 24485 7681 15482 9003 14664 3347 4334 818 6695 6428 4020
shrinkage=0.0085


Tree=30
num_leaves=13
num_cat=0
split_feature=27 118 36 118 111 27 118 152 111 114 111 111
split_gain=6068.67 2399.11 1092 770.838 466.93 416.328 290.532 213.381 146.738 118.169 115.15 111.404
threshold=5.5000000000000009 1.8950000000000002 18.050000000000004 2.3050000000000002 10.550000000000002 3.5000000000000004 4.0100000000000007 4.7150000000000007 11.050000000000002 19.150000000000002 12.250000000000002 10.15
decision_type=10 10 10 10 8 8 10 8 10 10 10 10
left_child=3 2 4 5 -2 9 -3 -4 -7 -1 -6 -9
right_child=1 6 7 -5 10 8 -8 11 -10 -11 -12 -13
leaf_value=0.013237733821175471 -0.0040441519724273376 0.0039984733761093873 -0.0047498530222539262 0.012614929829978678 -0.007706666354065899 0.0049747867159899871 0.012635238205414097 0.0049851664365782667 0.00077698383427635381 0.0075846412169555226 -0.010549998310715807 -0.00010993657909446601
leaf_weight=347.70435577630997 2147.5392670035362 791.51634484529495 427.29775848984718 1451.2235318869352 2444.9815455675125 1448.947390422225 437.25719624757767 567.8797053694725 1030.1076856404543 1177.3372995257378 1794.350237980485 681.42972372472286
leaf_count=238 5785 1366 1158 995 7675 2346 309 908 2152 1516 6241 1477
internal_value=0 -0.469 -0.667364 0.859691 -0.855904 0.633235 0.832418 0.0508123 0.380154 1.04436 -1.04838 0.259524
internal_weight=0 9292.25 8063.48 5455.32 6386.87 4004.1 1228.77 1676.61 2479.06 1525.04 4239.33 1249.31
internal_count=32166 24919 23244 7247 19701 6252 1675 3543 4498 1754 13916 2385
shrinkage=0.0085


Tree=31
num_leaves=13
num_cat=0
split_feature=23 105 116 116 116 23 23 105 141 105 105 130
split_gain=3796.67 1340.27 543.715 332.202 231.2 184.844 170.344 150.879 104.139 99.7481 83.0686 79.5158
threshold=22.050000000000004 1.3250000000000004 1.2950000000000002 1.135 1.3950000000000002 12.950000000000001 27.100000000000005 0.56300000000000017 8.4500000000000011 1.9850000000000001 6.0450000000000008 0.58000000000000018
decision_type=10 8 10 10 10 8 10 10 8 10 10 10
left_child=1 3 6 5 8 -1 -2 -7 -3 -4 -8 -9
right_child=2 4 9 -5 -6 7 10 11 -10 -11 -12 -13
leaf_value=-0.0095055002562952715 -0.00020239912590514704 0.0097363704490045257 0.0064136579770319195 -0.0022506309378593141 0.0074483287726065973 2.6617624899119988e-05 0.0044655633991170151 -0.0067901415576841007 -3.9407023133015535e-06 0.0099348112884531381 -0.00094558975787764285 0.00046031118452631353
leaf_weight=1492.0933652073145 837.69222310185432 81.942722275853157 1068.4460806846619 1350.1779292970896 388.59376946091652 287.69738912582397 3011.1859990060329 2426.8942750692368 2171.6845585107803 1290.898883536458 219.46272721886635 114.0926860421896
leaf_count=4982 1861 90 1522 3319 512 648 5029 7320 4849 1287 499 248
internal_value=0 -0.423918 0.599471 -0.697984 0.16427 -0.83329 0.377879 -0.682784 0.0413211 0.981403 0.482067 -0.760486
internal_weight=0 8313.18 6427.69 5670.96 2642.22 4320.78 4068.34 2828.68 2253.63 2359.34 3230.65 2540.99
internal_count=32166 21968 10198 16517 5451 13198 7389 8216 4939 2809 5528 7568
shrinkage=0.0085


Tree=32
num_leaves=13
num_cat=0
split_feature=68 86 68 86 68 86 119 138 138 68 138 119
split_gain=5251.24 830.474 488.495 329.701 274.138 232.126 170.747 138.844 131.607 123.655 115.127 105.093
threshold=80.500000000000014 22.500000000000004 62.500000000000007 20.500000000000004 97.500000000000014 17.500000000000004 73.500000000000014 203.50000000000003 125.50000000000001 97.500000000000014 178.50000000000003 107.50000000000001
decision_type=10 10 8 8 10 8 8 10 10 10 10 8
left_child=2 4 -1 10 5 6 -2 -8 -6 -3 11 -4
right_child=1 9 3 -5 8 -7 7 -9 -10 -11 -12 -13
leaf_value=0.0111893971020881 0.0055253389997365135 0.0040536427946186752 0.0071846747305405025 0.0088604398719544526 -0.006987924696470897 -0.00020249767316775556 -0.0058667509247294532 0.0017004153020213132 -0.0036132096124982973 -0.00044267945944882336 0.0081889870432260235 0.0017638119168259662
leaf_weight=1550.5748904496431 113.161845728755 879.36176081001759 309.07571567595005 1294.2938219606876 3170.7452285438776 1394.1388183683157 1914.9422916173935 192.42375490069389 1137.2944291681051 887.03513497114182 317.35672478377819 1576.5738746225834
leaf_count=1340 177 1520 411 1494 9700 3112 5527 382 2995 2020 380 3108
internal_value=0 -0.408713 0.849127 0.641804 -0.546952 -0.343755 -0.544527 -0.608835 -0.717371 0.21123 0.406256 0.312251
internal_weight=0 9689.1 5047.88 3497.3 7922.71 3614.67 2220.53 2107.37 4308.04 1766.4 2203.01 1885.65
internal_count=32166 25433 6733 5393 21893 9198 6086 5909 12695 3540 3899 3519
shrinkage=0.0085


Tree=33
num_leaves=13
num_cat=0
split_feature=51 110 110 88 88 111 88 51 111 51 110 110
split_gain=2975.3 1277.42 676.545 673.743 303.391 257.959 166.395 138.024 127.819 127.794 127.527 172.214
threshold=115.50000000000001 18.850000000000005 19.850000000000005 90.500000000000014 90.500000000000014 11.850000000000003 92.500000000000014 130.50000000000003 9.3500000000000032 132.50000000000003 30.850000000000005 22.150000000000002
decision_type=8 8 10 8 8 10 8 8 8 8 10 10
left_child=1 6 9 -3 -4 10 -1 8 -6 -2 11 -5
right_child=2 3 4 5 7 -7 -8 -9 -10 -11 -12 -13
leaf_value=0.0098642576458382557 0.0064438907707165677 0.0031513828713783478 0.0077163662468804541 -0.0025274353402022121 0.0037253149126991354 -0.0070633738574264983 0.0031217931674911025 0.0032359817692915157 -0.0026921240748741791 0.010205321160857376 0.0017834677723801964 -0.0059163936975512761
leaf_weight=358.92723488807678 1310.4564382433891 851.5451383292675 583.14904586970806 2445.7662672549486 297.50604267418385 2477.1567568331957 1007.6393849998713 944.28881725668907 906.0052648037672 1311.4674302190542 290.10944060981274 1948.4032444506884
leaf_count=360 1857 1573 756 6142 533 7585 1809 1733 2281 1283 589 5665
internal_value=0 -0.317523 0.616818 -0.469937 0.268354 -0.569932 0.575957 0.0945523 -0.129904 0.979635 -0.4318 -0.474204
internal_weight=0 9379.55 5352.87 8012.98 2730.95 7161.44 1366.57 2147.8 1203.51 2621.92 4684.28 4394.17
internal_count=32166 23723 8443 21554 5303 19981 2169 4547 2814 3140 12396 11807
shrinkage=0.0085


Tree=34
num_leaves=13
num_cat=0
split_feature=5 95 170 100 100 95 100 100 95 72 95 95
split_gain=1640.4 1538.12 1272.53 739.877 334.211 278.245 200.479 129.701 126.356 90.6607 86.3867 73.1162
threshold=1.0000000180025095e-35 35.920000000000009 1.0000000180025095e-35 0.70500000000000007 0.77000000000000013 37.443720000000006 2.3150000000000004 0.80500000000000016 36.448680000000003 39.500000000000007 35.105000000000011 35.420000000000009
decision_type=2 8 10 10 10 8 10 10 10 10 10 8
left_child=1 10 3 5 9 8 -5 -4 -3 -2 -1 -11
right_child=4 2 7 6 -6 -7 -8 -9 -10 11 -12 -13
leaf_value=0.011453674894472013 -0.006284948249280004 -0.0013171184326673943 0.0049775989130414564 0.0019097507233618741 0.00051343292578324073 -0.00028815761403636156 0.0081895671035629291 0.0099083987800034305 -0.004559924021108868 -0.0016661214477573004 0.0073999937649953228 -0.01106617895814915
leaf_weight=700.64719058573246 648.46401108801365 1178.9051338881254 1571.1724409461021 1392.5126751363277 342.02451501786709 2786.4037411659956 499.05734147131443 512.30898731946945 3308.2892190814018 64.589294746518135 843.64655147492886 880.41065008938313
leaf_count=568 1923 2817 2453 2762 733 6282 621 502 9142 154 1120 3089
internal_value=0 0.151603 0.0231006 -0.137258 -0.836121 -0.282162 0.419812 0.728479 -0.436279 -1.0286 1.08731 -1.22656
internal_weight=0 12792.9 11248.6 9165.17 1935.49 7273.6 1891.57 2083.48 4487.19 1593.46 1544.29 945
internal_count=32166 26267 24579 21624 5899 18241 3383 2955 11959 5166 1688 3243
shrinkage=0.0085


Tree=35
num_leaves=13
num_cat=0
split_feature=29 105 105 30 84 29 84 29 119 10 10 10
split_gain=5849.02 1376.31 1316.69 396.326 348.572 344.74 310.695 221.078 200.944 196.199 195.913 172.514
threshold=4.5000000000000009 1.3450000000000004 1.6050000000000002 117.50000000000001 58.500000000000007 2.5000000000000004 78.500000000000014 1.5000000000000002 70.500000000000014 3.5000000000000004 3.5000000000000004 2.5000000000000004
decision_type=10 8 10 10 8 8 8 10 8 2 2 2
left_child=1 3 4 -1 -2 -3 -4 9 -6 -5 11 -10
right_child=2 5 6 7 8 -7 -8 -9 10 -11 -12 -13
leaf_value=-0.0022206271043398113 -0.0011986129303802513 0.010157869408672918 0.0037844677144035395 0.0075983516814904645 0.0012096409278836396 0.0049970224697449038 -0.0038843152046492131 -0.00043703082461229434 -0.008932903637925765 0.00054836721255325691 -0.01207237002768792 -0.0044028715825644143
leaf_weight=1484.7875264883041 512.33709168434143 2679.4863230139017 1012.8350441604853 963.26154506206512 146.4210506528616 1439.9306281358004 611.97250644862652 673.12656052410603 2721.9430670142174 405.6847892254591 1076.2995777577162 784.69118069112301
leaf_count=3629 1195 2601 1755 1242 310 2321 1625 1534 8981 862 3950 2161
internal_value=0 0.590373 -0.681117 0.131788 -0.924909 0.982915 0.105314 0.417626 -1.00978 0.648306 -1.04663 -0.931774
internal_weight=0 7646.28 6866.5 3526.86 5241.69 4119.42 1624.81 2042.07 4729.35 1368.95 4582.93 3506.63
internal_count=32166 12189 19977 7267 16597 4922 3380 3638 15402 2104 15092 11142
shrinkage=0.0085


Tree=36
num_leaves=13
num_cat=0
split_feature=145 42 166 42 145 166 42 32 32 139 145 32
split_gain=2387.69 890.918 310.817 249.984 239.334 227.306 206.794 145.156 135.891 119.103 106.557 104.746
threshold=1.4950000000000003 946.29600000000016 1.0000000180025095e-35 1467.1584000000003 1.1850000000000003 85.050000000000011 292.24800000000005 40.750000000000007 32.050000000000004 19.050000000000004 1.635 47.95000000000001
decision_type=10 10 10 10 10 8 8 8 10 8 10 10
left_child=1 2 6 9 5 -3 -1 -4 -8 -2 -11 -10
right_child=3 4 7 -5 -6 -7 8 -9 11 10 -12 -13
leaf_value=0.0037430900105174278 0.011729756701708215 -0.00058021836392894467 0.0012589285843669557 -0.00075166536307690014 -0.0004079152434375491 -0.0077538960039776252 -0.00062505234775330561 0.0066584557179406173 -0.0035530501167575809 0.0032818204636461904 0.007814151998807476 0.0053930332872197074
leaf_weight=551.77253930270672 427.8050786703825 372.44953468441963 1323.978564530611 285.35599617660046 517.9991787225008 2245.5560714751482 3581.8847405910492 494.06209774315357 2416.9933122396469 482.29127019643784 1708.0139975547791 98.003814250230789
leaf_count=984 322 825 2640 641 1164 7077 8257 679 6423 860 2138 156
internal_value=0 -0.214081 -0.0454112 0.799841 -0.669361 -0.792233 -0.145617 0.320931 -0.198693 0.896705 0.802044 -0.376856
internal_weight=0 11602.7 8466.7 2903.47 3136 2618.01 6648.65 1818.04 6096.88 2618.11 2190.31 2515
internal_count=32166 28205 19139 3961 9066 7902 15820 3319 14836 3320 2998 6579
shrinkage=0.0085


Tree=37
num_leaves=13
num_cat=0
split_feature=35 102 102 42 52 52 52 121 121 102 102 4
split_gain=3321.27 2308.99 744.025 575.304 440.345 508.734 270.946 237.958 204.024 166.883 159.896 157.796
threshold=1.0000000180025095e-35 21.100000000000005 19.850000000000005 917.95680000000004 37.500000000000007 80.500000000000014 35.500000000000007 5.3350000000000009 4.8100000000000014 27.100000000000005 13.950000000000001 22.984222955000003
decision_type=10 8 10 10 8 10 8 8 10 10 10 8
left_child=1 6 7 4 -3 9 -1 -2 10 -6 -8 -12
right_child=2 3 -4 -5 5 -7 8 -9 -10 -11 11 -13
leaf_value=0.0061047485626246449 0.00010789520132393641 0.012158175135389696 0.0082544222775516006 -0.0045941771675290484 -0.003262544670069699 0.0057793987876149679 -0.01007341158147804 0.0076776022274429329 -0.0017226925891891665 0.0011877077265694471 -0.0020209799205601138 -0.0079846085514102359
leaf_weight=101.76921425759792 1607.7204254120588 302.04977363348007 2966.573650225997 1117.5983438789845 1088.2647932767868 1309.527714163065 2087.6332656443119 368.61419388651848 354.13627606630325 1380.5422857254744 416.66722498834133 1401.5916354358196
leaf_count=152 3439 240 3468 3086 2846 2040 7201 462 862 2843 1045 4482
internal_value=0 -0.355138 0.654458 0.0950403 0.269174 0.176182 -0.891612 0.178995 -0.930157 -0.0910272 -0.996058 -0.778739
internal_weight=0 9559.78 4942.91 5197.98 4080.38 3778.33 4361.8 1976.33 4260.03 2468.81 3905.89 1818.26
internal_count=32166 24797 7369 11055 7969 7729 13742 3901 13590 5689 12728 5527
shrinkage=0.0085


Tree=38
num_leaves=13
num_cat=0
split_feature=26 3 3 26 54 26 26 3 171 54 3 54
split_gain=5304.21 1820.38 485.841 317.266 264.733 248.67 207.277 182.267 138.309 131.098 126.039 108.19
threshold=2.5000000000000004 71.500000000000014 56.500000000000007 1.5000000000000002 48.500000000000007 3.5000000000000004 3.5000000000000004 78.500000000000014 172.11111110000002 40.500000000000007 62.500000000000007 57.500000000000007
decision_type=10 8 10 8 8 10 10 8 8 8 10 8
left_child=3 2 4 -1 -2 -3 -4 -7 -9 -8 11 -5
right_child=1 5 6 10 -6 7 9 8 -10 -11 -12 -13
leaf_value=0.0095638949490026194 0.0051771450336073974 0.0043260511941561018 -0.00026540896300370111 0.0090647480056965449 -0.0098959170323795545 -0.0029933841755993423 0.0067828249881590093 0.0098650766954116835 0.00052476177674229841 -0.0058181608280109057 0.0069815587901542013 0.00026468554753071008
leaf_weight=2808.4010106623173 86.900365084409714 1022.5189372599125 692.3359637260437 123.99185241758823 2428.5600464344025 1278.9526726454496 60.756614327430725 120.85231670737267 2091.3109694719315 2474.4681461453438 769.89443373680115 537.75251662731171
leaf_count=2910 132 1745 1541 130 8253 3292 83 123 4548 7221 1042 1146
internal_value=0 -0.399861 -0.773328 0.929803 -1.10283 0.0753229 -0.516386 -0.0516842 0.122006 -0.648802 0.546291 0.225797
internal_weight=0 10256.7 5743.02 4240.04 2515.46 4513.63 3227.56 3491.12 2212.16 2535.22 1431.64 661.744
internal_count=32166 26938 17230 5228 8385 9708 8845 7963 4671 7304 2318 1276
shrinkage=0.0085


Tree=39
num_leaves=13
num_cat=0
split_feature=159 96 159 60 163 60 93 96 93 96 93 178
split_gain=4836.94 752.257 659.489 387.524 378.881 375.796 339.305 203.782 204.824 137.879 126 126.671
threshold=1.0000000180025095e-35 35.315000000000005 7.299500000000001 18.500000000000004 129.46428570000003 1.0000000180025095e-35 122.50000000000001 34.815000000000005 219.50000000000003 38.605000000000011 86.500000000000014 1.0000000180025095e-35
decision_type=10 8 10 8 8 10 8 8 8 8 10 10
left_child=1 -1 -2 5 -4 -3 10 -6 -9 -10 -7 -12
right_child=2 3 4 -5 7 6 -8 8 9 -11 11 -13
leaf_value=0.008311694087423889 0.010345539060777457 0.0027958469074282539 0.0096863235546733543 -0.00015550386900831231 0.0091974658191248775 0.0035026466214248008 -0.0082563140022410813 0.0030385210221679604 -0.0061500883014790793 0.0030127656718476749 -0.0050217436851620143 0.0057072149400608473
leaf_weight=297.87922522425652 1314.888664290309 317.10423575341702 670.23877127468586 870.33438250422478 345.01287721097469 149.12153585255146 3722.3223428726196 4276.2544400691986 313.64309991896152 190.25520002841949 1941.443040728569 82.515849426388741
leaf_count=374 1204 606 686 1996 357 272 12110 7670 906 344 5511 130
internal_value=0 -0.577901 0.577761 -0.643395 0.432611 -0.73094 -0.787987 0.34006 0.286401 -0.316309 -0.473765 -0.539158
internal_weight=0 7380.72 7110.29 7082.84 5795.4 6212.51 5895.4 5125.17 4780.15 503.898 2173.08 2023.96
internal_count=32166 20999 11167 20625 9963 18629 18023 9277 8920 1250 5913 5641
shrinkage=0.0085


Tree=40
num_leaves=13
num_cat=0
split_feature=174 174 174 174 58 58 174 58 148 58 174 174
split_gain=12114.1 1113.57 1112.75 623.704 438.08 313.064 283.366 238.679 126.331 116.942 93.6816 87.6088
threshold=0.055000000000000007 0.22500000000000003 0.025000000000000005 -1.0000000180025095e-35 45.500000000000007 59.500000000000007 0.015000000000000001 59.500000000000007 2.1950000000000007 50.500000000000007 0.085000000000000006 0.12500000000000003
decision_type=10 10 8 10 8 8 10 10 10 8 10 10
left_child=2 5 3 7 -4 10 -5 -1 -6 -8 -2 -7
right_child=1 -3 4 6 8 11 9 -9 -10 -11 -12 -13
leaf_value=0.0068330816973692287 0.0043737835284178078 0.011898997587448265 0.0045045603322724495 -0.012309351851948555 -0.0049939385661425017 0.00019432282343747364 -0.0019233292888774277 -0.0069744598266164208 0.0040384922002834472 -0.0086875749457152179 0.0081705557708171977 0.0047507422012593231
leaf_weight=204.81883084774017 683.83957956731319 3273.2644415199757 441.07070614397526 2887.0019145905972 2650.4432849884033 874.36009539663792 223.03892044723034 161.3813171684742 116.41166846454144 1092.1002695858479 1519.7142027765512 468.23285388946533
leaf_count=288 1152 2443 737 10796 7425 1905 551 487 199 3568 1857 758
internal_value=0 0.97926 -0.846687 -1.16368 -0.395142 0.590867 -1.27275 0.087567 -0.54271 -0.887304 0.822788 0.210007
internal_weight=0 6819.41 7776.27 4568.34 3207.93 3546.15 4202.14 366.2 2766.85 1315.14 2203.55 1342.59
internal_count=32166 8115 24051 15690 8361 5672 14915 775 7624 4119 3009 2663
shrinkage=0.0085


Tree=41
num_leaves=13
num_cat=0
split_feature=173 173 173 173 24 24 82 173 82 82 173 97
split_gain=12043 1760.4 806.417 756.496 346.328 199.614 190.766 181.739 135.475 117.218 101.96 91.244
threshold=0.13500000000000004 0.045000000000000005 0.27500000000000008 -1.0000000180025095e-35 1.155 1.1850000000000003 53.500000000000007 0.46500000000000002 67.500000000000014 89.500000000000014 0.015000000000000001 2.3500000000000001
decision_type=10 8 10 10 8 8 8 10 8 10 10 8
left_child=1 3 5 8 11 -2 -6 -4 -1 -8 -5 -3
right_child=2 4 7 10 6 -7 9 -9 -10 -11 -12 -13
leaf_value=0.0072135066063924256 0.001090601329930424 -0.00056652978051671145 0.0088115917655506686 -0.014118980005310845 0.0049044921876950226 0.0065249117609019148 -0.00087488422323298855 0.012505030558045339 -0.0033165650013333254 -0.0054119150214837607 -0.011049033518834146 -0.0066589593843887317
leaf_weight=138.34697890281677 727.17727200686932 201.40959700942039 1558.1002437472343 1201.1033601015806 337.31748780608177 1490.9901272058487 1758.8576788753271 2551.8752248138189 242.35160727798939 537.12185609340668 2307.1214070618153 1532.9480603933334
leaf_count=184 1499 464 1760 4766 541 2128 4072 1699 631 1538 8251 4633
internal_value=0 -0.789127 1.04431 -1.27846 -0.353332 0.55816 -0.124711 1.30659 0.060046 -0.227934 -1.42373 -0.700277
internal_weight=0 8256.58 6328.14 3888.92 4367.65 2218.17 2633.3 4109.98 380.699 2295.98 3508.22 1734.36
internal_count=32166 25080 7086 13832 11248 3627 6151 3459 815 5610 13017 5097
shrinkage=0.0085


Tree=42
num_leaves=13
num_cat=0
split_feature=115 125 20 125 78 20 112 115 125 125 20 112
split_gain=2304.02 1186.51 1037.85 458.111 431.038 389.81 249.23 235.058 231.04 183.814 180.87 120.735
threshold=1.3050000000000004 12.405000000000003 1.0000000180025095e-35 18.405000000000005 92.500000000000014 1.0000000180025095e-35 11.65 1.8950000000000002 4.2950000000000008 15.105000000000002 1.0000000180025095e-35 10.65
decision_type=10 8 2 10 8 2 8 10 10 10 2 8
left_child=1 4 3 -3 6 9 10 -7 -6 -2 -1 -10
right_child=5 2 -4 -5 8 7 -8 -9 11 -11 -12 -13
leaf_value=-0.0034637096112086169 0.0054273928346634933 0.00056237017958619961 -0.0076477123056155434 0.0062332426901237819 0.0069549134197801335 -0.0037137843684841715 -0.0095137993168898302 0.00815725040248318 -8.6942371752661731e-05 0.0096977340084829187 -0.01003004136026301 -0.0049528745700000085
leaf_weight=1535.1964799165726 1776.2914696335793 3641.307665809989 919.30294552445412 1434.7354670912027 206.46610045433044 425.42742478847504 1372.1472645998001 167.71855601668358 703.92163710296154 1239.2519919723272 377.92653928697109 773.72179584205151
leaf_count=4025 2714 7888 2905 2084 287 1109 4672 200 1570 1233 1301 2178
internal_value=0 -0.22177 0.0777016 0.254798 -0.583076 0.699382 -0.793936 -0.0414516 -0.171582 0.845132 -0.560362 -0.310138
internal_weight=0 10964.7 5995.35 5076.04 4969.38 3608.69 3285.27 593.146 1684.11 3015.54 1913.12 1477.64
internal_count=32166 26910 12877 9972 14033 5256 9998 1309 4035 3947 5326 3748
shrinkage=0.0085


Tree=43
num_leaves=13
num_cat=0
split_feature=94 88 61 121 88 121 94 11 121 121 11 94
split_gain=2469.31 679.685 510.408 312.852 257.392 228.803 214.787 200.423 135.758 131.216 129.213 104.753
threshold=90.500000000000014 91.500000000000014 99.500000000000014 4.6550000000000011 88.500000000000014 4.910000000000001 115.50000000000001 834.00000000000011 4.7100000000000009 4.3050000000000006 481.50000000000006 78.500000000000014
decision_type=8 8 8 10 10 8 10 2 8 10 2 10
left_child=4 9 6 7 -1 11 8 10 -3 -2 -4 -6
right_child=1 2 3 -5 5 -7 -8 -9 -10 -11 -12 -13
leaf_value=0.01047884003749051 0.00099989388994721051 -0.0051222501771175447 -0.0035100984974451681 0.0018121612106111449 0.005651037045482441 0.0085293379985705176 -0.0078558440834894036 -0.0083063390382152793 0.0007250088250636478 0.0058933705300036783 -0.00067102039648239198 0.0014303871794398252
leaf_weight=823.37029245495796 868.78382746875286 862.96789848804474 2188.637008741498 1598.4259749650955 741.65984606742859 892.2876797914505 1579.6022349148989 395.90323732793331 429.06630630791187 728.29089239239693 2462.5595440864563 996.99612310528755
leaf_count=739 1829 2474 5788 3139 1094 1022 5083 1265 926 1086 5723 1998
internal_value=0 -0.223236 -0.324547 -0.172271 0.744722 0.591776 -0.676831 -0.294382 -0.374111 0.380343 -0.236161 0.380262
internal_weight=0 11114.2 9517.16 6645.53 3454.31 2630.94 2871.64 5047.1 1292.03 1597.07 4651.2 1738.66
internal_count=32166 27313 24398 15915 4853 4114 8483 12776 3400 2915 11511 3092
shrinkage=0.0085


Tree=44
num_leaves=13
num_cat=0
split_feature=146 88 52 54 52 54 99 52 52 99 99 52
split_gain=2183.82 1058.14 749.068 469.951 423.998 230.77 230.242 205.946 144.489 130.755 119.631 121.285
threshold=1.3050000000000004 91.500000000000014 31.500000000000004 56.500000000000007 99.500000000000014 52.500000000000007 0.79000000000000015 41.500000000000007 96.500000000000014 12.65 1.1900000000000002 79.500000000000014
decision_type=10 8 10 8 10 8 10 8 10 8 10 10
left_child=1 7 -3 9 6 -2 -5 -1 -9 -4 11 -7
right_child=5 2 3 4 -6 10 -8 8 -10 -11 -12 -13
leaf_value=0.012010860234323894 0.010563713037050905 0.010392889601602446 0.0061743415700759178 -0.0050508422734605813 0.0033164853427584472 0.0020814021429033706 -0.00098085024145272816 0.0021482492552913394 0.0096675370755306567 -0.00058187663000565306 0.0078213981519885348 0.0066426393398693606
leaf_weight=210.46658922731876 688.511738717556 297.29856216907501 413.93720568716526 6565.00116930902 546.36296314001083 1113.0832191258669 1186.6400215774775 1470.5999490767717 211.01742917299271 412.88952359557152 769.71985785663128 678.80494394898415
leaf_count=157 590 292 593 18718 1003 2137 2768 2861 221 938 938 950
internal_value=0 -0.201307 -0.338358 -0.389279 -0.460923 0.728669 -0.520943 0.481041 0.364039 0.329458 0.590276 0.448341
internal_weight=0 11314.2 9422.13 9124.83 8298 3250.12 7751.64 1892.08 1681.62 826.827 2561.61 1791.89
internal_count=32166 27551 24312 24020 22489 4615 21486 3239 3082 1531 4025 3087
shrinkage=0.0085


end of trees

feature importances:
Column_174=25
Column_19=18
Column_69=16
Column_110=14
Column_70=12
Column_173=12
Column_3=11
Column_23=11
Column_162=11
Column_108=10
Column_74=9
Column_93=9
Column_118=9
Column_50=8
Column_52=8
Column_102=8
Column_121=8
Column_10=7
Column_54=7
Column_88=7
Column_111=7
Column_120=7
Column_170=7
Column_31=6
Column_94=6
Column_99=6
Column_105=6
Column_115=6
Column_116=6
Column_145=6
Column_159=6
Column_20=5
Column_24=5
Column_26=5
Column_29=5
Column_66=5
Column_85=5
Column_95=5
Column_158=5
Column_164=5
Column_32=4
Column_41=4
Column_42=4
Column_43=4
Column_44=4
Column_51=4
Column_58=4
Column_59=4
Column_60=4
Column_62=4
Column_64=4
Column_68=4
Column_79=4
Column_81=4
Column_100=4
Column_101=4
Column_104=4
Column_107=4
Column_109=4
Column_119=4
Column_125=4
Column_128=4
Column_163=4
Column_183=4
Column_4=3
Column_34=3
Column_53=3
Column_57=3
Column_76=3
Column_77=3
Column_82=3
Column_86=3
Column_89=3
Column_92=3
Column_96=3
Column_114=3
Column_123=3
Column_138=3
Column_157=3
Column_5=2
Column_11=2
Column_25=2
Column_27=2
Column_30=2
Column_37=2
Column_40=2
Column_63=2
Column_84=2
Column_98=2
Column_103=2
Column_112=2
Column_113=2
Column_124=2
Column_150=2
Column_165=2
Column_166=2
Column_171=2
Column_13=1
Column_35=1
Column_36=1
Column_45=1
Column_46=1
Column_49=1
Column_55=1
Column_61=1
Column_67=1
Column_71=1
Column_72=1
Column_75=1
Column_78=1
Column_97=1
Column_130=1
Column_135=1
Column_137=1
Column_139=1
Column_141=1
Column_144=1
Column_146=1
Column_148=1
Column_152=1
Column_167=1
Column_168=1
Column_176=1
Column_178=1
Column_179=1
Column_182=1

parameters:
[boosting: gbdt]
[objective: binary]
[metric: auc]
[tree_learner: serial]
[device_type: cpu]
[data: ]
[valid: ]
[num_iterations: 100]
[learning_rate: 0.0085]
[num_leaves: 13]
[num_threads: 8]
[max_depth: -1]
[min_data_in_leaf: 80]
[min_sum_hessian_in_leaf: 10]
[bagging_fraction: 0.38]
[pos_bagging_fraction: 1]
[neg_bagging_fraction: 1]
[bagging_freq: 5]
[bagging_seed: 3]
[feature_fraction: 0.04]
[feature_fraction_bynode: 1]
[feature_fraction_seed: 2]
[early_stopping_round: 0]
[first_metric_only: 0]
[max_delta_step: 0]
[lambda_l1: 0.130265]
[lambda_l2: 0.360343]
[min_gain_to_split: 0]
[drop_rate: 0.1]
[max_drop: 50]
[skip_drop: 0.5]
[xgboost_dart_mode: 0]
[uniform_drop: 0]
[drop_seed: 4]
[top_rate: 0.2]
[other_rate: 0.1]
[min_data_per_group: 100]
[max_cat_threshold: 32]
[cat_l2: 10]
[cat_smooth: 10]
[max_cat_to_onehot: 4]
[top_k: 20]
[monotone_constraints: ]
[feature_contri: ]
[forcedsplits_filename: ]
[forcedbins_filename: ]
[refit_decay_rate: 0.9]
[cegb_tradeoff: 1]
[cegb_penalty_split: 0]
[cegb_penalty_feature_lazy: ]
[cegb_penalty_feature_coupled: ]
[verbosity: 1]
[max_bin: 255]
[max_bin_by_feature: ]
[min_data_in_bin: 3]
[bin_construct_sample_cnt: 200000]
[histogram_pool_size: -1]
[data_random_seed: 1]
[output_model: LightGBM_model.txt]
[snapshot_freq: -1]
[input_model: ]
[output_result: LightGBM_predict_result.txt]
[initscore_filename: ]
[valid_data_initscores: ]
[pre_partition: 0]
[enable_bundle: 1]
[max_conflict_rate: 0]
[is_enable_sparse: 1]
[sparse_threshold: 0.8]
[use_missing: 1]
[zero_as_missing: 0]
[two_round: 0]
[save_binary: 0]
[header: 0]
[label_column: ]
[weight_column: ]
[group_column: ]
[ignore_column: ]
[categorical_feature: ]
[predict_raw_score: 0]
[predict_leaf_index: 0]
[predict_contrib: 0]
[num_iteration_predict: -1]
[pred_early_stop: 0]
[pred_early_stop_freq: 10]
[pred_early_stop_margin: 10]
[convert_model_language: ]
[convert_model: gbdt_prediction.cpp]
[num_class: 1]
[is_unbalance: 1]
[scale_pos_weight: 1]
[sigmoid: 1]
[boost_from_average: 0]
[reg_sqrt: 0]
[alpha: 0.9]
[fair_c: 1]
[poisson_max_delta_step: 0.7]
[tweedie_variance_power: 1.5]
[max_position: 20]
[lambdamart_norm: 1]
[label_gain: ]
[metric_freq: 1]
[is_provide_training_metric: 0]
[eval_at: ]
[multi_error_top_k: 1]
[num_machines: 1]
[local_listen_port: 12400]
[time_out: 120]
[machine_list_filename: ]
[machines: ]
[gpu_platform_id: -1]
[gpu_device_id: -1]
[gpu_use_dp: 0]

end of parameters

pandas_categorical:null
